digraph Tree {
node [shape=box] ;
0 [label="X[52] <= 0.046\ngini = 0.477\nsamples = 3262\nvalue = [1984, 1278]"] ;
1 [label="X[6] <= 0.065\ngini = 0.354\nsamples = 2431\nvalue = [1872, 559]"] ;
0 -> 1 [labeldistance=2.5, labelangle=45, headlabel="True"] ;
2 [label="X[51] <= 0.491\ngini = 0.27\nsamples = 2209\nvalue = [1853, 356]"] ;
1 -> 2 ;
3 [label="X[15] <= 0.025\ngini = 0.186\nsamples = 1971\nvalue = [1767, 204]"] ;
2 -> 3 ;
4 [label="gini = 0.128\nsamples = 1738\nvalue = [1619, 119]"] ;
3 -> 4 ;
5 [label="gini = 0.463\nsamples = 233\nvalue = [148, 85]"] ;
3 -> 5 ;
6 [label="X[56] <= 35.0\ngini = 0.462\nsamples = 238\nvalue = [86, 152]"] ;
2 -> 6 ;
7 [label="gini = 0.383\nsamples = 89\nvalue = [66, 23]"] ;
6 -> 7 ;
8 [label="gini = 0.232\nsamples = 149\nvalue = [20, 129]"] ;
6 -> 8 ;
9 [label="X[24] <= 0.315\ngini = 0.157\nsamples = 222\nvalue = [19, 203]"] ;
1 -> 9 ;
10 [label="X[26] <= 0.16\ngini = 0.073\nsamples = 210\nvalue = [8, 202]"] ;
9 -> 10 ;
11 [label="gini = 0.056\nsamples = 208\nvalue = [6, 202]"] ;
10 -> 11 ;
12 [label="gini = 0.0\nsamples = 2\nvalue = [2, 0]"] ;
10 -> 12 ;
13 [label="X[22] <= 0.085\ngini = 0.153\nsamples = 12\nvalue = [11, 1]"] ;
9 -> 13 ;
14 [label="gini = 0.0\nsamples = 11\nvalue = [11, 0]"] ;
13 -> 14 ;
15 [label="gini = 0.0\nsamples = 1\nvalue = [0, 1]"] ;
13 -> 15 ;
16 [label="X[24] <= 0.4\ngini = 0.233\nsamples = 831\nvalue = [112, 719]"] ;
0 -> 16 [labeldistance=2.5, labelangle=-45, headlabel="False"] ;
17 [label="X[45] <= 0.335\ngini = 0.137\nsamples = 772\nvalue = [57, 715]"] ;
16 -> 17 ;
18 [label="X[55] <= 6.5\ngini = 0.101\nsamples = 753\nvalue = [40, 713]"] ;
17 -> 18 ;
19 [label="gini = 0.477\nsamples = 28\nvalue = [17, 11]"] ;
18 -> 19 ;
20 [label="gini = 0.061\nsamples = 725\nvalue = [23, 702]"] ;
18 -> 20 ;
21 [label="X[54] <= 7.517\ngini = 0.188\nsamples = 19\nvalue = [17, 2]"] ;
17 -> 21 ;
22 [label="gini = 0.0\nsamples = 17\nvalue = [17, 0]"] ;
21 -> 22 ;
23 [label="gini = 0.0\nsamples = 2\nvalue = [0, 2]"] ;
21 -> 23 ;
24 [label="X[6] <= 0.08\ngini = 0.126\nsamples = 59\nvalue = [55, 4]"] ;
16 -> 24 ;
25 [label="gini = 0.0\nsamples = 55\nvalue = [55, 0]"] ;
24 -> 25 ;
26 [label="gini = 0.0\nsamples = 4\nvalue = [0, 4]"] ;
24 -> 26 ;
}